digraph Tree {
node [shape=box] ;
0 [label="X[0] <= -0.075\nmse = 0.098\nsamples = 101\nvalue = 0.006"] ;
1 [label="X[0] <= -0.295\nmse = 0.023\nsamples = 43\nvalue = -0.303"] ;
0 -> 1 [labeldistance=2.5, labelangle=45, headlabel="True"] ;
2 [label="mse = 0.014\nsamples = 21\nvalue = -0.418"] ;
1 -> 2 ;
3 [label="mse = 0.007\nsamples = 22\nvalue = -0.192"] ;
1 -> 3 ;
4 [label="X[0] <= 0.265\nmse = 0.03\nsamples = 58\nvalue = 0.234"] ;
0 -> 4 [labeldistance=2.5, labelangle=-45, headlabel="False"] ;
5 [label="mse = 0.015\nsamples = 34\nvalue = 0.117"] ;
4 -> 5 ;
6 [label="mse = 0.005\nsamples = 24\nvalue = 0.399"] ;
4 -> 6 ;
}